<?xml version="1.0"?>
<opencv_storage>
<stage8>
  <maxWeakCount>41</maxWeakCount>
  <stageThreshold>-6.0599988698959351e-01</stageThreshold>
  <weakClassifiers>
    <_>
      <internalNodes>
        0 -1 47707 5.2266292273998260e-02</internalNodes>
      <leafValues>
        3.1561461091041565e-01 -6.5217393636703491e-01</leafValues></_>
    <_>
      <internalNodes>
        0 -1 27538 2.3938728496432304e-02</internalNodes>
      <leafValues>
        -3.6927711218595505e-02 6.0347300767898560e-01</leafValues></_>
    <_>
      <internalNodes>
        0 -1 33856 -1.6211619600653648e-02</internalNodes>
      <leafValues>
        4.0217059850692749e-01 -1.4247193932533264e-01</leafValues></_>
    <_>
      <internalNodes>
        0 -1 57204 -1.5977859497070312e-02</internalNodes>
      <leafValues>
        -5.1115667819976807e-01 1.1759603023529053e-01</leafValues></_>
    <_>
      <internalNodes>
        0 -1 48787 -4.3900972232222557e-03</internalNodes>
      <leafValues>
        2.0659919083118439e-01 -1.7739866673946381e-01</leafValues></_>
    <_>
      <internalNodes>
        0 -1 67506 -9.9357776343822479e-03</internalNodes>
      <leafValues>
        2.3576654493808746e-01 -1.6339376568794250e-01</leafValues></_>
    <_>
      <internalNodes>
        0 -1 1413 -2.0770266652107239e-01</internalNodes>
      <leafValues>
        3.7245231866836548e-01 -7.8239336609840393e-02</leafValues></_>
    <_>
      <internalNodes>
        0 -1 76579 4.9720723181962967e-03</internalNodes>
      <leafValues>
        -1.1458664387464523e-01 3.1514364480972290e-01</leafValues></_>
    <_>
      <internalNodes>
        0 -1 75028 -6.3338840845972300e-04</internalNodes>
      <leafValues>
        2.2919015586376190e-01 -1.6541682183742523e-01</leafValues></_>
    <_>
      <internalNodes>
        0 -1 44454 -1.9444869831204414e-02</internalNodes>
      <leafValues>
        -7.2624731063842773e-01 5.9164416044950485e-02</leafValues></_>
    <_>
      <internalNodes>
        0 -1 71423 -5.1117769908159971e-04</internalNodes>
      <leafValues>
        -2.7710187435150146e-01 1.0448999702930450e-01</leafValues></_>
    <_>
      <internalNodes>
        0 -1 30258 -2.2551189176738262e-03</internalNodes>
      <leafValues>
        -2.4238407611846924e-01 1.4626805484294891e-01</leafValues></_>
    <_>
      <internalNodes>
        0 -1 18363 1.3520985376089811e-03</internalNodes>
      <leafValues>
        -1.4087899029254913e-01 2.7374330163002014e-01</leafValues></_>
    <_>
      <internalNodes>
        0 -1 35364 2.8962910175323486e-02</internalNodes>
      <leafValues>
        -8.8379390537738800e-02 4.2737990617752075e-01</leafValues></_>
    <_>
      <internalNodes>
        0 -1 25849 -6.7014722153544426e-03</internalNodes>
      <leafValues>
        2.9497390985488892e-01 -1.5158310532569885e-01</leafValues></_>
    <_>
      <internalNodes>
        0 -1 11861 5.0486936233937740e-03</internalNodes>
      <leafValues>
        7.7861391007900238e-02 -4.0485399961471558e-01</leafValues></_>
    <_>
      <internalNodes>
        0 -1 61848 1.2780306860804558e-02</internalNodes>
      <leafValues>
        -6.8903155624866486e-02 4.6429073810577393e-01</leafValues></_>
    <_>
      <internalNodes>
        0 -1 70211 2.0873539149761200e-02</internalNodes>
      <leafValues>
        -1.0372653603553772e-01 3.0729451775550842e-01</leafValues></_>
    <_>
      <internalNodes>
        0 -1 64942 -2.5730855762958527e-02</internalNodes>
      <leafValues>
        -4.9490818381309509e-01 6.8165242671966553e-02</leafValues></_>
    <_>
      <internalNodes>
        0 -1 52933 1.5112299006432295e-03</internalNodes>
      <leafValues>
        -1.0674368590116501e-01 2.9921814799308777e-01</leafValues></_>
    <_>
      <internalNodes>
        0 -1 9157 5.0993554294109344e-02</internalNodes>
      <leafValues>
        -5.5015411227941513e-02 5.5262398719787598e-01</leafValues></_>
    <_>
      <internalNodes>
        0 -1 55382 -8.9403614401817322e-03</internalNodes>
      <leafValues>
        -6.0777503252029419e-01 5.6685827672481537e-02</leafValues></_>
    <_>
      <internalNodes>
        0 -1 45114 -5.3264233283698559e-03</internalNodes>
      <leafValues>
        2.8746071457862854e-01 -1.0990027338266373e-01</leafValues></_>
    <_>
      <internalNodes>
        0 -1 65721 1.7830048454925418e-03</internalNodes>
      <leafValues>
        -1.3522644340991974e-01 2.6678824424743652e-01</leafValues></_>
    <_>
      <internalNodes>
        0 -1 303 -1.8346929550170898e-01</internalNodes>
      <leafValues>
        4.7473090887069702e-01 -6.4266942441463470e-02</leafValues></_>
    <_>
      <internalNodes>
        0 -1 27303 1.2919287197291851e-02</internalNodes>
      <leafValues>
        -9.5616370439529419e-02 3.4193417429924011e-01</leafValues></_>
    <_>
      <internalNodes>
        0 -1 20663 2.4753334000706673e-02</internalNodes>
      <leafValues>
        7.6255075633525848e-02 -5.6985515356063843e-01</leafValues></_>
    <_>
      <internalNodes>
        0 -1 34194 2.4988390505313873e-03</internalNodes>
      <leafValues>
        6.4456127583980560e-02 -5.9680700302124023e-01</leafValues></_>
    <_>
      <internalNodes>
        0 -1 28080 -3.6710567772388458e-02</internalNodes>
      <leafValues>
        5.4095762968063354e-01 -5.9727728366851807e-02</leafValues></_>
    <_>
      <internalNodes>
        0 -1 77504 4.3611205182969570e-03</internalNodes>
      <leafValues>
        -8.3452552556991577e-02 3.9203774929046631e-01</leafValues></_>
    <_>
      <internalNodes>
        0 -1 21055 -8.0341994762420654e-02</internalNodes>
      <leafValues>
        4.1983303427696228e-01 -7.5586214661598206e-02</leafValues></_>
    <_>
      <internalNodes>
        0 -1 6675 2.3201953154057264e-03</internalNodes>
      <leafValues>
        8.0933727324008942e-02 -4.4398310780525208e-01</leafValues></_>
    <_>
      <internalNodes>
        0 -1 13636 5.8686477132141590e-03</internalNodes>
      <leafValues>
        -9.1976083815097809e-02 4.0487357974052429e-01</leafValues></_>
    <_>
      <internalNodes>
        0 -1 4894 6.6793267615139484e-03</internalNodes>
      <leafValues>
        7.4593596160411835e-02 -4.9041897058486938e-01</leafValues></_>
    <_>
      <internalNodes>
        0 -1 58192 6.2534570693969727e-02</internalNodes>
      <leafValues>
        4.2472939938306808e-02 -7.6097416877746582e-01</leafValues></_>
    <_>
      <internalNodes>
        0 -1 67638 -1.2746972963213921e-02</internalNodes>
      <leafValues>
        7.7680724859237671e-01 -5.1525399088859558e-02</leafValues></_>
    <_>
      <internalNodes>
        0 -1 78038 4.0031438693404198e-03</internalNodes>
      <leafValues>
        -1.0886534303426743e-01 2.9335930943489075e-01</leafValues></_>
    <_>
      <internalNodes>
        0 -1 70569 2.5978144258260727e-03</internalNodes>
      <leafValues>
        7.2965018451213837e-02 -4.9049234390258789e-01</leafValues></_>
    <_>
      <internalNodes>
        0 -1 62357 6.0225632041692734e-03</internalNodes>
      <leafValues>
        -1.0568475723266602e-01 2.9486200213432312e-01</leafValues></_>
    <_>
      <internalNodes>
        0 -1 54518 3.7770778872072697e-03</internalNodes>
      <leafValues>
        4.1525468230247498e-02 -8.4833729267120361e-01</leafValues></_>
    <_>
      <internalNodes>
        0 -1 57201 -1.7033316195011139e-02</internalNodes>
      <leafValues>
        -7.1897459030151367e-01 4.0293570607900620e-02</leafValues></_></weakClassifiers></stage8>
</opencv_storage>
