<?xml version="1.0"?>
<opencv_storage>
<stage6>
  <maxWeakCount>36</maxWeakCount>
  <stageThreshold>-4.9816694855690002e-01</stageThreshold>
  <weakClassifiers>
    <_>
      <internalNodes>
        0 -1 49735 6.3114268705248833e-03</internalNodes>
      <leafValues>
        1.5681818127632141e-01 5.7297295331954956e-01</leafValues></_>
    <_>
      <internalNodes>
        0 -1 57691 -5.1705185323953629e-03</internalNodes>
      <leafValues>
        4.2141008377075195e-01 -9.3340784311294556e-02</leafValues></_>
    <_>
      <internalNodes>
        0 -1 55071 -7.9847511369735003e-04</internalNodes>
      <leafValues>
        1.7450825870037079e-01 -2.1587377786636353e-01</leafValues></_>
    <_>
      <internalNodes>
        0 -1 69875 -1.4251494780182838e-02</internalNodes>
      <leafValues>
        2.4975840747356415e-01 -1.2334040552377701e-01</leafValues></_>
    <_>
      <internalNodes>
        0 -1 72566 6.9711385294795036e-03</internalNodes>
      <leafValues>
        -1.5214388072490692e-01 3.0671417713165283e-01</leafValues></_>
    <_>
      <internalNodes>
        0 -1 53511 3.7201156374067068e-03</internalNodes>
      <leafValues>
        -9.5174320042133331e-02 3.3709830045700073e-01</leafValues></_>
    <_>
      <internalNodes>
        0 -1 36218 -2.4982551112771034e-03</internalNodes>
      <leafValues>
        -4.5565277338027954e-01 7.9951077699661255e-02</leafValues></_>
    <_>
      <internalNodes>
        0 -1 44914 -3.4640245139598846e-03</internalNodes>
      <leafValues>
        2.3398727178573608e-01 -1.5911389887332916e-01</leafValues></_>
    <_>
      <internalNodes>
        0 -1 19985 -2.7359053492546082e-03</internalNodes>
      <leafValues>
        -5.8872699737548828e-01 5.4916210472583771e-02</leafValues></_>
    <_>
      <internalNodes>
        0 -1 11796 1.2110689654946327e-02</internalNodes>
      <leafValues>
        -1.3522557914257050e-01 2.9892584681510925e-01</leafValues></_>
    <_>
      <internalNodes>
        0 -1 62668 -1.8720103427767754e-02</internalNodes>
      <leafValues>
        3.2125210762023926e-01 -1.0668674111366272e-01</leafValues></_>
    <_>
      <internalNodes>
        0 -1 27495 5.2206371910870075e-03</internalNodes>
      <leafValues>
        -9.9850118160247803e-02 3.2802838087081909e-01</leafValues></_>
    <_>
      <internalNodes>
        0 -1 14212 5.9234239161014557e-03</internalNodes>
      <leafValues>
        1.4819091558456421e-01 -2.4794971942901611e-01</leafValues></_>
    <_>
      <internalNodes>
        0 -1 75420 -1.4733074931427836e-04</internalNodes>
      <leafValues>
        -1.9986894726753235e-01 1.6707469522953033e-01</leafValues></_>
    <_>
      <internalNodes>
        0 -1 70296 1.0224832221865654e-03</internalNodes>
      <leafValues>
        -1.5366408228874207e-01 2.4420878291130066e-01</leafValues></_>
    <_>
      <internalNodes>
        0 -1 67494 -1.1264133499935269e-03</internalNodes>
      <leafValues>
        2.3079101741313934e-01 -1.4547315239906311e-01</leafValues></_>
    <_>
      <internalNodes>
        0 -1 34037 -5.6342799216508865e-03</internalNodes>
      <leafValues>
        2.4233834445476532e-01 -1.5812559425830841e-01</leafValues></_>
    <_>
      <internalNodes>
        0 -1 13307 -2.8983429074287415e-03</internalNodes>
      <leafValues>
        -5.4521185159683228e-01 7.4028454720973969e-02</leafValues></_>
    <_>
      <internalNodes>
        0 -1 27884 5.2960198372602463e-03</internalNodes>
      <leafValues>
        -1.3809585571289062e-01 2.9163780808448792e-01</leafValues></_>
    <_>
      <internalNodes>
        0 -1 58229 4.9965700600296259e-04</internalNodes>
      <leafValues>
        -1.5048782527446747e-01 2.4022156000137329e-01</leafValues></_>
    <_>
      <internalNodes>
        0 -1 58251 -1.1033918708562851e-03</internalNodes>
      <leafValues>
        2.5076863169670105e-01 -1.4475256204605103e-01</leafValues></_>
    <_>
      <internalNodes>
        0 -1 49479 4.6210199594497681e-02</internalNodes>
      <leafValues>
        7.8518576920032501e-02 -5.7191306352615356e-01</leafValues></_>
    <_>
      <internalNodes>
        0 -1 63727 4.9411099404096603e-02</internalNodes>
      <leafValues>
        8.0001458525657654e-02 -5.4765856266021729e-01</leafValues></_>
    <_>
      <internalNodes>
        0 -1 4457 -3.3768370747566223e-02</internalNodes>
      <leafValues>
        3.7533411383628845e-01 -1.0058382898569107e-01</leafValues></_>
    <_>
      <internalNodes>
        0 -1 12180 1.4837081544101238e-03</internalNodes>
      <leafValues>
        -1.6115228831768036e-01 2.2736565768718719e-01</leafValues></_>
    <_>
      <internalNodes>
        0 -1 2728 1.9379181321710348e-03</internalNodes>
      <leafValues>
        6.9094635546207428e-02 -5.0281733274459839e-01</leafValues></_>
    <_>
      <internalNodes>
        0 -1 61081 -7.1444129571318626e-03</internalNodes>
      <leafValues>
        -3.5174909234046936e-01 1.0040539503097534e-01</leafValues></_>
    <_>
      <internalNodes>
        0 -1 76052 -4.7323540784418583e-03</internalNodes>
      <leafValues>
        2.8329336643218994e-01 -1.4053592085838318e-01</leafValues></_>
    <_>
      <internalNodes>
        0 -1 77644 1.4384986832737923e-02</internalNodes>
      <leafValues>
        4.6121038496494293e-02 -8.8599050045013428e-01</leafValues></_>
    <_>
      <internalNodes>
        0 -1 7316 2.6000374928116798e-03</internalNodes>
      <leafValues>
        9.9745355546474457e-02 -3.3634361624717712e-01</leafValues></_>
    <_>
      <internalNodes>
        0 -1 7456 5.5714747868478298e-03</internalNodes>
      <leafValues>
        6.0504566878080368e-02 -5.5963736772537231e-01</leafValues></_>
    <_>
      <internalNodes>
        0 -1 67687 -7.6431203633546829e-03</internalNodes>
      <leafValues>
        2.0644585788249969e-01 -1.7572481930255890e-01</leafValues></_>
    <_>
      <internalNodes>
        0 -1 77427 -4.0342742577195168e-03</internalNodes>
      <leafValues>
        2.9705652594566345e-01 -1.2307147681713104e-01</leafValues></_>
    <_>
      <internalNodes>
        0 -1 60706 1.6361426562070847e-02</internalNodes>
      <leafValues>
        -1.1057031899690628e-01 3.2345271110534668e-01</leafValues></_>
    <_>
      <internalNodes>
        0 -1 76479 -1.0923491790890694e-02</internalNodes>
      <leafValues>
        6.2664955854415894e-01 -5.1243565976619720e-02</leafValues></_>
    <_>
      <internalNodes>
        0 -1 67570 -3.6885142326354980e-02</internalNodes>
      <leafValues>
        -5.7158964872360229e-01 6.3422463834285736e-02</leafValues></_></weakClassifiers></stage6>
</opencv_storage>
