<?xml version="1.0"?>
<opencv_storage>
<stage5>
  <maxWeakCount>38</maxWeakCount>
  <stageThreshold>-6.1265289783477783e-01</stageThreshold>
  <weakClassifiers>
    <_>
      <internalNodes>
        0 -1 58204 6.2068249098956585e-03</internalNodes>
      <leafValues>
        3.6015325784683228e-01 -1.2621359527111053e-01</leafValues></_>
    <_>
      <internalNodes>
        0 -1 67849 -1.0250585153698921e-02</internalNodes>
      <leafValues>
        3.6889892816543579e-01 -9.0641431510448456e-02</leafValues></_>
    <_>
      <internalNodes>
        0 -1 77168 2.8699520044028759e-03</internalNodes>
      <leafValues>
        6.9186337292194366e-02 -5.1053738594055176e-01</leafValues></_>
    <_>
      <internalNodes>
        0 -1 62615 5.1837395876646042e-03</internalNodes>
      <leafValues>
        -1.8464468419551849e-01 1.8928121030330658e-01</leafValues></_>
    <_>
      <internalNodes>
        0 -1 57428 1.1448558652773499e-03</internalNodes>
      <leafValues>
        -1.6834248602390289e-01 2.4178285896778107e-01</leafValues></_>
    <_>
      <internalNodes>
        0 -1 67809 -1.1069823522120714e-03</internalNodes>
      <leafValues>
        3.2806614041328430e-01 -1.8158163130283356e-01</leafValues></_>
    <_>
      <internalNodes>
        0 -1 12599 -2.7341494569554925e-04</internalNodes>
      <leafValues>
        -2.4414655566215515e-01 1.7183336615562439e-01</leafValues></_>
    <_>
      <internalNodes>
        0 -1 42643 -9.9464915692806244e-03</internalNodes>
      <leafValues>
        3.6116853356361389e-01 -1.1832096427679062e-01</leafValues></_>
    <_>
      <internalNodes>
        0 -1 20626 -1.4215440023690462e-03</internalNodes>
      <leafValues>
        2.4875992536544800e-01 -1.5904547274112701e-01</leafValues></_>
    <_>
      <internalNodes>
        0 -1 39153 -3.8483235985040665e-03</internalNodes>
      <leafValues>
        -5.5428910255432129e-01 6.9514133036136627e-02</leafValues></_>
    <_>
      <internalNodes>
        0 -1 64897 -8.1341166514903307e-04</internalNodes>
      <leafValues>
        -4.0462663769721985e-01 8.5956044495105743e-02</leafValues></_>
    <_>
      <internalNodes>
        0 -1 56912 -7.9451431520283222e-04</internalNodes>
      <leafValues>
        2.5123482942581177e-01 -1.4610165357589722e-01</leafValues></_>
    <_>
      <internalNodes>
        0 -1 51092 3.2111600041389465e-02</internalNodes>
      <leafValues>
        1.0013988614082336e-01 -4.2074787616729736e-01</leafValues></_>
    <_>
      <internalNodes>
        0 -1 43232 7.4431817047297955e-03</internalNodes>
      <leafValues>
        5.4656751453876495e-02 -6.4987087249755859e-01</leafValues></_>
    <_>
      <internalNodes>
        0 -1 69660 7.8620212152600288e-03</internalNodes>
      <leafValues>
        1.0450294613838196e-01 -3.1287634372711182e-01</leafValues></_>
    <_>
      <internalNodes>
        0 -1 20725 1.4511228539049625e-02</internalNodes>
      <leafValues>
        3.7049159407615662e-02 -8.9385205507278442e-01</leafValues></_>
    <_>
      <internalNodes>
        0 -1 57787 7.7928497921675444e-04</internalNodes>
      <leafValues>
        -1.4186169207096100e-01 2.7523082494735718e-01</leafValues></_>
    <_>
      <internalNodes>
        0 -1 34172 9.5683438703417778e-03</internalNodes>
      <leafValues>
        -1.2029119580984116e-01 3.0586180090904236e-01</leafValues></_>
    <_>
      <internalNodes>
        0 -1 70448 2.7146514039486647e-03</internalNodes>
      <leafValues>
        1.0368307679891586e-01 -4.0340334177017212e-01</leafValues></_>
    <_>
      <internalNodes>
        0 -1 44932 -4.8406957648694515e-03</internalNodes>
      <leafValues>
        -4.8414021730422974e-01 8.1186413764953613e-02</leafValues></_>
    <_>
      <internalNodes>
        0 -1 22222 -7.0504266768693924e-03</internalNodes>
      <leafValues>
        1.9748616218566895e-01 -1.8896630406379700e-01</leafValues></_>
    <_>
      <internalNodes>
        0 -1 45027 3.2982234843075275e-03</internalNodes>
      <leafValues>
        7.0390902459621429e-02 -5.1076263189315796e-01</leafValues></_>
    <_>
      <internalNodes>
        0 -1 49903 -1.1778496205806732e-02</internalNodes>
      <leafValues>
        6.7295503616333008e-01 -5.9535756707191467e-02</leafValues></_>
    <_>
      <internalNodes>
        0 -1 53475 1.6795278061181307e-03</internalNodes>
      <leafValues>
        -1.2530097365379333e-01 2.6659893989562988e-01</leafValues></_>
    <_>
      <internalNodes>
        0 -1 72897 2.6098441332578659e-02</internalNodes>
      <leafValues>
        -6.7549765110015869e-02 5.0379461050033569e-01</leafValues></_>
    <_>
      <internalNodes>
        0 -1 43779 -1.7892726464197040e-04</internalNodes>
      <leafValues>
        1.6042064130306244e-01 -2.2951982915401459e-01</leafValues></_>
    <_>
      <internalNodes>
        0 -1 49543 1.0991799645125866e-03</internalNodes>
      <leafValues>
        -1.4656589925289154e-01 2.6192021369934082e-01</leafValues></_>
    <_>
      <internalNodes>
        0 -1 61817 -4.2681181803345680e-03</internalNodes>
      <leafValues>
        -5.9994518756866455e-01 6.8707063794136047e-02</leafValues></_>
    <_>
      <internalNodes>
        0 -1 71331 -4.2438120581209660e-03</internalNodes>
      <leafValues>
        -4.0706682205200195e-01 9.4717308878898621e-02</leafValues></_>
    <_>
      <internalNodes>
        0 -1 78057 -5.5155827431008220e-04</internalNodes>
      <leafValues>
        2.1550107002258301e-01 -1.7744226753711700e-01</leafValues></_>
    <_>
      <internalNodes>
        0 -1 64764 3.0133144464343786e-03</internalNodes>
      <leafValues>
        -8.2190126180648804e-02 5.1512229442596436e-01</leafValues></_>
    <_>
      <internalNodes>
        0 -1 75238 2.8409885708242655e-03</internalNodes>
      <leafValues>
        1.0601439327001572e-01 -3.6558574438095093e-01</leafValues></_>
    <_>
      <internalNodes>
        0 -1 58347 1.2995416764169931e-03</internalNodes>
      <leafValues>
        -1.0701707005500793e-01 3.6611521244049072e-01</leafValues></_>
    <_>
      <internalNodes>
        0 -1 67959 -1.2699323706328869e-03</internalNodes>
      <leafValues>
        2.7722042798995972e-01 -1.4274336397647858e-01</leafValues></_>
    <_>
      <internalNodes>
        0 -1 61378 -1.3452658895403147e-03</internalNodes>
      <leafValues>
        2.2910401225090027e-01 -1.6785313189029694e-01</leafValues></_>
    <_>
      <internalNodes>
        0 -1 7 3.5711885429918766e-03</internalNodes>
      <leafValues>
        9.1476775705814362e-02 -4.2620003223419189e-01</leafValues></_>
    <_>
      <internalNodes>
        0 -1 55009 -2.0998148829676211e-04</internalNodes>
      <leafValues>
        1.8718571960926056e-01 -2.1684996783733368e-01</leafValues></_>
    <_>
      <internalNodes>
        0 -1 72428 -5.1473230123519897e-03</internalNodes>
      <leafValues>
        -5.2975058555603027e-01 6.3739091157913208e-02</leafValues></_></weakClassifiers></stage5>
</opencv_storage>
